svm_type c_svc
kernel_type rbf
gamma 0.00892857
nr_class 2
total_sv 445
rho -0.637181
label 1 -1
nr_sv 220 225
SV
1 6:1 7:1 15:1 21:1 29:1 33:1 34:1 37:1 42:1 50:1 53:1 57:1 67:1 76:1 78:1 81:1 84:1 86:1 93:1 103:1 107:1 
0.3510994271739555 3:1 7:1 15:1 21:1 29:1 33:1 34:1 37:1 48:1 50:1 53:1 57:1 67:1 76:1 78:1 81:1 84:1 86:1 93:1 103:1 107:1 
1 3:1 7:1 15:1 21:1 29:1 33:1 34:1 37:1 48:1 50:1 53:1 57:1 67:1 76:1 78:1 81:1 84:1 86:1 95:1 103:1 111:1 
1 3:1 7:1 15:1 21:1 29:1 33:1 34:1 37:1 44:1 50:1 53:1 57:1 67:1 76:1 78:1 81:1 84:1 86:1 95:1 103:1 107:1 
0.5627501741375129 3:1 7:1 15:1 21:1 29:1 33:1 34:1 37:1 44:1 50:1 53:1 57:1 67:1 76:1 78:1 81:1 84:1 86:1 93:1 103:1 111:1 
0.05848860311155926 3:1 7:1 15:1 21:1 29:1 33:1 34:1 37:1 42:1 50:1 53:1 57:1 67:1 76:1 78:1 81:1 84:1 86:1 93:1 104:1 107:1 
1 3:1 7:1 15:1 21:1 29:1 33:1 34:1 37:1 42:1 50:1 53:1 57:1 67:1 76:1 78:1 81:1 84:1 86:1 95:1 103:1 111:1 
1 3:1 7:1 15:1 21:1 29:1 33:1 34:1 37:1 48:1 50:1 53:1 57:1 67:1 76:1 78:1 81:1 84:1 86:1 95:1 103:1 107:1 
1 3:1 7:1 15:1 21:1 29:1 33:1 34:1 37:1 42:1 50:1 53:1 57:1 67:1 76:1 78:1 81:1 84:1 86:1 93:1 103:1 111:1 
0.9200844709249664 6:1 8:1 19:1 22:1 24:1 33:1 35:1 37:1 45:1 50:1 53:1 57:1 67:1 76:1 78:1 81:1 84:1 86:1 95:1 103:1 106:1 
1 6:1 10:1 19:1 22:1 24:1 33:1 35:1 37:1 47:1 50:1 53:1 57:1 67:1 76:1 78:1 81:1 84:1 86:1 95:1 104:1 106:1 
1 6:1 10:1 19:1 22:1 24:1 33:1 35:1 37:1 44:1 50:1 53:1 57:1 67:1 76:1 78:1 81:1 84:1 86:1 95:1 103:1 106:1 
1 6:1 8:1 14:1 22:1 24:1 33:1 35:1 37:1 47:1 50:1 53:1 57:1 67:1 76:1 78:1 81:1 84:1 86:1 95:1 103:1 106:1 
0.1753012056657119 6:1 8:1 19:1 22:1 24:1 33:1 35:1 37:1 47:1 50:1 53:1 57:1 67:1 76:1 78:1 81:1 84:1 86:1 95:1 103:1 106:1 
1 6:1 8:1 14:1 22:1 24:1 33:1 35:1 37:1 44:1 50:1 53:1 57:1 67:1 76:1 78:1 81:1 84:1 86:1 95:1 103:1 106:1 
1 6:1 10:1 19:1 22:1 24:1 33:1 35:1 37:1 45:1 50:1 53:1 57:1 67:1 76:1 78:1 81:1 84:1 86:1 93:1 104:1 106:1 
1 6:1 8:1 19:1 22:1 24:1 33:1 35:1 37:1 44:1 50:1 53:1 57:1 67:1 76:1 78:1 81:1 84:1 86:1 95:1 103:1 106:1 
0.1612404254830241 6:1 10:1 20:1 22:1 25:1 33:1 34:1 36:1 45:1 50:1 54:1 58:1 65:1 74:1 78:1 81:1 84:1 89:1 92:1 105:1 110:1 
1 6:1 10:1 14:1 22:1 24:1 33:1 35:1 37:1 47:1 50:1 53:1 57:1 67:1 76:1 78:1 81:1 84:1 86:1 93:1 104:1 106:1 
1 6:1 10:1 14:1 22:1 24:1 33:1 35:1 37:1 47:1 50:1 53:1 57:1 67:1 76:1 78:1 81:1 84:1 86:1 95:1 104:1 106:1 
0.8191346018702295 6:1 8:1 14:1 22:1 24:1 33:1 35:1 37:1 45:1 50:1 53:1 57:1 67:1 76:1 78:1 81:1 84:1 86:1 95:1 103:1 106:1 
1 6:1 10:1 14:1 22:1 24:1 33:1 35:1 37:1 44:1 50:1 53:1 57:1 67:1 76:1 78:1 81:1 84:1 86:1 95:1 104:1 106:1 
1 6:1 10:1 19:1 22:1 24:1 33:1 35:1 37:1 47:1 50:1 53:1 57:1 67:1 76:1 78:1 81:1 84:1 86:1 95:1 103:1 106:1 
1 6:1 10:1 19:1 22:1 24:1 33:1 35:1 37:1 44:1 50:1 53:1 57:1 67:1 76:1 78:1 81:1 84:1 86:1 93:1 103:1 106:1 
1 6:1 10:1 14:1 22:1 24:1 33:1 35:1 37:1 45:1 50:1 53:1 57:1 67:1 76:1 78:1 81:1 84:1 86:1 95:1 104:1 106:1 
1 6:1 10:1 19:1 22:1 24:1 33:1 35:1 37:1 45:1 50:1 53:1 57:1 67:1 76:1 78:1 81:1 84:1 86:1 95:1 103:1 106:1 
1 6:1 10:1 19:1 22:1 24:1 33:1 35:1 37:1 47:1 50:1 53:1 57:1 67:1 76:1 78:1 81:1 84:1 86:1 93:1 103:1 106:1 
1 6:1 8:1 14:1 22:1 24:1 33:1 35:1 37:1 44:1 50:1 53:1 57:1 67:1 76:1 78:1 81:1 84:1 86:1 93:1 103:1 106:1 
0.1869550451178493 6:1 7:1 20:1 22:1 25:1 33:1 34:1 36:1 45:1 50:1 54:1 58:1 65:1 74:1 78:1 81:1 84:1 89:1 92:1 105:1 106:1 
1 6:1 10:1 14:1 22:1 24:1 33:1 35:1 37:1 44:1 50:1 53:1 57:1 67:1 76:1 78:1 81:1 84:1 86:1 93:1 103:1 106:1 
0.4662052035290544 6:1 8:1 14:1 22:1 24:1 33:1 35:1 37:1 47:1 50:1 53:1 57:1 67:1 76:1 78:1 81:1 84:1 86:1 93:1 103:1 106:1 
1 6:1 10:1 14:1 22:1 24:1 33:1 35:1 37:1 44:1 50:1 53:1 57:1 67:1 76:1 78:1 81:1 84:1 86:1 95:1 103:1 106:1 
1 6:1 10:1 19:1 22:1 24:1 33:1 35:1 37:1 45:1 50:1 53:1 57:1 67:1 76:1 78:1 81:1 84:1 86:1 95:1 104:1 106:1 
1 6:1 10:1 19:1 22:1 24:1 33:1 35:1 37:1 45:1 50:1 53:1 57:1 67:1 76:1 78:1 81:1 84:1 86:1 93:1 103:1 106:1 
1 6:1 10:1 14:1 22:1 24:1 33:1 35:1 37:1 45:1 50:1 53:1 57:1 67:1 76:1 78:1 81:1 84:1 86:1 93:1 104:1 106:1 
0.6475706195461569 6:1 8:1 14:1 22:1 24:1 33:1 35:1 37:1 44:1 50:1 53:1 57:1 67:1 76:1 78:1 81:1 84:1 86:1 95:1 104:1 106:1 
1 6:1 10:1 14:1 22:1 24:1 33:1 35:1 37:1 47:1 50:1 53:1 57:1 67:1 76:1 78:1 81:1 84:1 86:1 93:1 103:1 106:1 
1 6:1 10:1 14:1 22:1 24:1 33:1 35:1 37:1 45:1 50:1 53:1 57:1 67:1 76:1 78:1 81:1 84:1 86:1 95:1 103:1 106:1 
1 6:1 10:1 19:1 22:1 24:1 33:1 35:1 37:1 44:1 50:1 53:1 57:1 67:1 76:1 78:1 81:1 84:1 86:1 95:1 104:1 106:1 
0.8401603552056541 6:1 10:1 19:1 22:1 24:1 33:1 35:1 37:1 44:1 50:1 53:1 57:1 67:1 76:1 78:1 81:1 84:1 86:1 93:1 104:1 106:1 
0.6888045469984888 6:1 10:1 19:1 22:1 24:1 33:1 35:1 37:1 47:1 50:1 53:1 57:1 67:1 76:1 78:1 81:1 84:1 86:1 93:1 104:1 106:1 
1 6:1 10:1 14:1 22:1 24:1 33:1 35:1 37:1 45:1 50:1 53:1 57:1 67:1 76:1 78:1 81:1 84:1 86:1 93:1 103:1 106:1 
0.9312796058917895 6:1 7:1 14:1 22:1 25:1 33:1 34:1 36:1 45:1 50:1 54:1 58:1 65:1 74:1 78:1 81:1 84:1 89:1 92:1 105:1 110:1 
1 6:1 10:1 14:1 22:1 24:1 33:1 35:1 37:1 47:1 50:1 53:1 57:1 67:1 76:1 78:1 81:1 84:1 86:1 95:1 103:1 106:1 
0.2687304217650594 6:1 7:1 14:1 22:1 25:1 33:1 34:1 36:1 41:1 50:1 54:1 58:1 65:1 74:1 78:1 81:1 84:1 89:1 92:1 105:1 110:1 
1 6:1 10:1 14:1 22:1 24:1 33:1 35:1 37:1 44:1 50:1 53:1 57:1 67:1 76:1 78:1 81:1 84:1 86:1 93:1 104:1 106:1 
1 6:1 8:1 14:1 21:1 25:1 33:1 34:1 36:1 48:1 51:1 53:1 59:1 67:1 76:1 78:1 81:1 84:1 86:1 92:1 103:1 111:1 
1 3:1 10:1 14:1 22:1 25:1 33:1 34:1 36:1 45:1 50:1 54:1 58:1 65:1 74:1 78:1 81:1 84:1 89:1 92:1 105:1 110:1 
1 4:1 7:1 15:1 22:1 28:1 33:1 34:1 37:1 48:1 50:1 54:1 56:1 67:1 74:1 78:1 81:1 84:1 88:1 98:1 104:1 106:1 
1 2:1 7:1 19:1 21:1 28:1 33:1 35:1 37:1 48:1 50:1 53:1 57:1 67:1 76:1 78:1 81:1 84:1 86:1 98:1 101:1 109:1 
0.4729819992067391 6:1 7:1 14:1 22:1 25:1 33:1 34:1 36:1 45:1 50:1 54:1 58:1 66:1 74:1 78:1 81:1 84:1 89:1 92:1 105:1 110:1 
0.321724186121908 3:1 10:1 20:1 22:1 28:1 33:1 34:1 37:1 48:1 50:1 54:1 56:1 67:1 77:1 78:1 81:1 84:1 88:1 98:1 104:1 106:1 
1 3:1 7:1 14:1 22:1 25:1 33:1 34:1 36:1 45:1 50:1 54:1 58:1 66:1 74:1 78:1 81:1 84:1 89:1 92:1 105:1 106:1 
0.2463212753558034 3:1 10:1 14:1 22:1 25:1 33:1 34:1 36:1 41:1 50:1 54:1 58:1 65:1 74:1 78:1 81:1 84:1 89:1 92:1 105:1 110:1 
1 3:1 8:1 19:1 21:1 28:1 33:1 34:1 36:1 40:1 50:1 53:1 57:1 67:1 76:1 78:1 81:1 83:1 86:1 96:1 104:1 108:1 
1 6:1 7:1 20:1 22:1 25:1 33:1 34:1 36:1 45:1 50:1 54:1 58:1 66:1 74:1 78:1 81:1 84:1 89:1 92:1 105:1 110:1 
0.9432586165049918 3:1 7:1 14:1 22:1 25:1 33:1 34:1 36:1 41:1 50:1 54:1 58:1 66:1 74:1 78:1 81:1 84:1 89:1 92:1 105:1 106:1 
0.1274114034741935 6:1 7:1 20:1 22:1 25:1 33:1 34:1 36:1 45:1 50:1 54:1 58:1 61:1 74:1 78:1 81:1 84:1 89:1 92:1 105:1 110:1 
1 3:1 7:1 14:1 22:1 25:1 33:1 34:1 36:1 41:1 50:1 54:1 58:1 65:1 74:1 78:1 81:1 84:1 89:1 92:1 105:1 106:1 
1 6:1 7:1 20:1 22:1 25:1 33:1 34:1 36:1 41:1 50:1 54:1 58:1 65:1 74:1 78:1 81:1 84:1 89:1 92:1 105:1 110:1 
1 3:1 8:1 16:1 21:1 28:1 33:1 34:1 36:1 48:1 50:1 53:1 57:1 67:1 76:1 78:1 81:1 83:1 86:1 96:1 104:1 107:1 
0.3850565520856303 6:1 7:1 20:1 22:1 25:1 33:1 34:1 36:1 41:1 50:1 54:1 58:1 66:1 74:1 78:1 81:1 84:1 89:1 92:1 105:1 110:1 
1 3:1 7:1 14:1 22:1 25:1 33:1 34:1 36:1 45:1 50:1 54:1 58:1 65:1 74:1 78:1 81:1 84:1 89:1 92:1 105:1 106:1 
1 4:1 10:1 15:1 22:1 28:1 33:1 34:1 37:1 48:1 50:1 54:1 56:1 67:1 74:1 78:1 81:1 84:1 88:1 98:1 104:1 106:1 
1 2:1 10:1 20:1 22:1 28:1 33:1 34:1 37:1 48:1 50:1 54:1 56:1 67:1 74:1 78:1 81:1 84:1 88:1 98:1 104:1 106:1 
1 2:1 8:1 12:1 21:1 28:1 33:1 34:1 36:1 40:1 50:1 53:1 57:1 67:1 76:1 78:1 81:1 83:1 86:1 96:1 104:1 107:1 
1 2:1 8:1 19:1 21:1 28:1 33:1 34:1 36:1 40:1 50:1 53:1 57:1 67:1 76:1 78:1 81:1 83:1 86:1 96:1 104:1 108:1 
0.021758171968433 3:1 10:1 20:1 22:1 25:1 33:1 34:1 36:1 45:1 50:1 54:1 58:1 65:1 74:1 78:1 81:1 84:1 89:1 92:1 105:1 110:1 
0.03624400744399015 3:1 10:1 14:1 22:1 25:1 33:1 34:1 36:1 45:1 50:1 54:1 58:1 65:1 74:1 78:1 81:1 84:1 89:1 92:1 105:1 106:1 
1 2:1 7:1 19:1 21:1 28:1 33:1 34:1 36:1 48:1 50:1 53:1 57:1 67:1 76:1 78:1 81:1 83:1 86:1 96:1 104:1 108:1 
1 3:1 7:1 15:1 22:1 28:1 33:1 34:1 37:1 48:1 50:1 54:1 56:1 67:1 74:1 78:1 81:1 84:1 88:1 98:1 104:1 106:1 
1 3:1 8:1 14:1 21:1 25:1 33:1 34:1 36:1 45:1 51:1 53:1 59:1 67:1 76:1 78:1 81:1 84:1 86:1 92:1 103:1 111:1 
1 3:1 7:1 16:1 21:1 28:1 33:1 34:1 36:1 40:1 50:1 53:1 57:1 67:1 76:1 78:1 81:1 83:1 86:1 96:1 104:1 107:1 
1 6:1 7:1 15:1 22:1 31:1 33:1 34:1 37:1 38:1 51:1 53:1 57:1 67:1 75:1 78:1 81:1 84:1 88:1 98:1 104:1 109:1 
1 6:1 7:1 20:1 22:1 25:1 33:1 34:1 36:1 45:1 50:1 54:1 58:1 65:1 74:1 78:1 81:1 84:1 89:1 92:1 105:1 110:1 
1 6:1 7:1 15:1 22:1 28:1 33:1 34:1 37:1 48:1 50:1 54:1 56:1 67:1 74:1 78:1 81:1 84:1 88:1 98:1 104:1 106:1 
1 2:1 8:1 12:1 21:1 28:1 33:1 34:1 36:1 48:1 50:1 53:1 57:1 67:1 76:1 78:1 81:1 83:1 86:1 96:1 104:1 107:1 
0.5241866995922964 6:1 10:1 20:1 22:1 25:1 33:1 34:1 36:1 41:1 50:1 54:1 58:1 65:1 74:1 78:1 81:1 84:1 89:1 92:1 105:1 110:1 
1 4:1 10:1 20:1 22:1 28:1 33:1 34:1 37:1 48:1 50:1 54:1 56:1 67:1 74:1 78:1 81:1 84:1 88:1 98:1 104:1 106:1 
1 2:1 7:1 16:1 21:1 28:1 33:1 34:1 36:1 48:1 50:1 53:1 57:1 67:1 76:1 78:1 81:1 83:1 86:1 96:1 104:1 107:1 
0.04600883054373232 3:1 7:1 20:1 22:1 25:1 33:1 34:1 36:1 45:1 50:1 54:1 58:1 65:1 74:1 78:1 81:1 84:1 89:1 92:1 105:1 106:1 
1 3:1 9:1 19:1 21:1 28:1 33:1 35:1 37:1 48:1 50:1 53:1 57:1 67:1 76:1 78:1 81:1 84:1 86:1 98:1 101:1 109:1 
1 6:1 8:1 14:1 21:1 25:1 33:1 34:1 36:1 41:1 51:1 53:1 59:1 67:1 76:1 78:1 81:1 84:1 86:1 92:1 103:1 107:1 
0.2281058419457982 6:1 8:1 19:1 21:1 25:1 33:1 34:1 36:1 48:1 51:1 53:1 59:1 67:1 76:1 78:1 81:1 84:1 86:1 92:1 103:1 111:1 
1 1:1 9:1 19:1 21:1 28:1 33:1 35:1 37:1 48:1 50:1 53:1 57:1 67:1 76:1 78:1 81:1 84:1 86:1 98:1 101:1 109:1 
1 6:1 8:1 14:1 21:1 25:1 33:1 34:1 36:1 45:1 51:1 53:1 59:1 67:1 76:1 78:1 81:1 84:1 86:1 92:1 103:1 111:1 
1 2:1 9:1 19:1 21:1 28:1 33:1 35:1 37:1 48:1 50:1 53:1 57:1 67:1 76:1 78:1 81:1 84:1 86:1 98:1 101:1 109:1 
1 3:1 8:1 12:1 21:1 28:1 33:1 34:1 36:1 48:1 50:1 53:1 57:1 67:1 76:1 78:1 81:1 83:1 86:1 96:1 104:1 108:1 
1 6:1 7:1 15:1 22:1 28:1 33:1 34:1 37:1 48:1 50:1 54:1 56:1 67:1 77:1 78:1 81:1 84:1 88:1 98:1 104:1 106:1 
1 3:1 10:1 15:1 22:1 28:1 33:1 34:1 37:1 48:1 50:1 54:1 56:1 67:1 77:1 78:1 81:1 84:1 88:1 98:1 104:1 106:1 
1 6:1 10:1 15:1 22:1 28:1 33:1 34:1 37:1 48:1 50:1 54:1 56:1 67:1 74:1 78:1 81:1 84:1 88:1 98:1 104:1 106:1 
1 2:1 7:1 19:1 21:1 28:1 33:1 34:1 36:1 46:1 50:1 53:1 57:1 67:1 76:1 78:1 81:1 83:1 86:1 96:1 104:1 107:1 
1 3:1 7:1 16:1 21:1 28:1 33:1 34:1 36:1 48:1 50:1 53:1 57:1 67:1 76:1 78:1 81:1 83:1 86:1 96:1 104:1 107:1 
1 3:1 10:1 15:1 22:1 28:1 33:1 34:1 37:1 48:1 50:1 54:1 56:1 67:1 74:1 78:1 81:1 84:1 88:1 98:1 104:1 106:1 
1 3:1 7:1 16:1 21:1 28:1 33:1 34:1 36:1 48:1 50:1 53:1 57:1 67:1 76:1 78:1 81:1 83:1 86:1 96:1 104:1 108:1 
1 2:1 7:1 15:1 22:1 28:1 33:1 34:1 37:1 48:1 50:1 54:1 56:1 67:1 74:1 78:1 81:1 84:1 88:1 98:1 104:1 106:1 
1 3:1 8:1 14:1 21:1 25:1 33:1 34:1 36:1 48:1 51:1 53:1 59:1 67:1 76:1 78:1 81:1 84:1 86:1 92:1 104:1 111:1 
1 4:1 7:1 19:1 21:1 28:1 33:1 35:1 37:1 48:1 50:1 53:1 57:1 67:1 76:1 78:1 81:1 84:1 86:1 98:1 101:1 109:1 
1 2:1 7:1 19:1 21:1 28:1 33:1 34:1 36:1 48:1 50:1 53:1 57:1 67:1 76:1 78:1 81:1 83:1 86:1 96:1 104:1 107:1 
1 2:1 7:1 12:1 21:1 28:1 33:1 34:1 36:1 48:1 50:1 53:1 57:1 67:1 76:1 78:1 81:1 83:1 86:1 96:1 104:1 108:1 
1 4:1 7:1 15:1 22:1 28:1 33:1 34:1 37:1 48:1 50:1 54:1 56:1 67:1 77:1 78:1 81:1 84:1 88:1 98:1 104:1 106:1 
1 6:1 7:1 15:1 22:1 31:1 33:1 34:1 37:1 38:1 51:1 53:1 57:1 67:1 76:1 78:1 81:1 84:1 88:1 98:1 104:1 109:1 
1 3:1 8:1 19:1 21:1 28:1 33:1 34:1 36:1 48:1 50:1 53:1 57:1 67:1 76:1 78:1 81:1 83:1 86:1 96:1 104:1 108:1 
1 3:1 7:1 19:1 21:1 28:1 33:1 35:1 37:1 48:1 50:1 53:1 57:1 67:1 76:1 78:1 81:1 84:1 86:1 98:1 101:1 109:1 
1 6:1 7:1 15:1 22:1 30:1 33:1 34:1 37:1 38:1 51:1 53:1 57:1 67:1 76:1 78:1 81:1 84:1 88:1 98:1 104:1 109:1 
1 6:1 8:1 14:1 21:1 25:1 33:1 34:1 36:1 48:1 51:1 53:1 59:1 67:1 76:1 78:1 81:1 84:1 86:1 92:1 104:1 111:1 
1 2:1 7:1 15:1 22:1 28:1 33:1 34:1 37:1 48:1 50:1 54:1 56:1 67:1 77:1 78:1 81:1 84:1 88:1 98:1 104:1 106:1 
1 2:1 7:1 19:1 21:1 28:1 33:1 34:1 36:1 40:1 50:1 53:1 57:1 67:1 76:1 78:1 81:1 83:1 86:1 96:1 104:1 108:1 
1 6:1 7:1 15:1 22:1 30:1 33:1 34:1 37:1 38:1 51:1 53:1 57:1 67:1 75:1 78:1 81:1 84:1 88:1 98:1 104:1 109:1 
1 3:1 8:1 14:1 21:1 25:1 33:1 34:1 36:1 48:1 51:1 53:1 59:1 67:1 76:1 78:1 81:1 84:1 86:1 92:1 103:1 111:1 
1 4:1 7:1 20:1 22:1 28:1 33:1 34:1 37:1 48:1 50:1 54:1 56:1 67:1 74:1 78:1 81:1 84:1 88:1 98:1 104:1 106:1 
1 3:1 7:1 16:1 21:1 28:1 33:1 34:1 36:1 46:1 50:1 53:1 57:1 67:1 76:1 78:1 81:1 83:1 86:1 96:1 104:1 107:1 
1 3:1 7:1 12:1 21:1 28:1 33:1 34:1 36:1 46:1 50:1 53:1 57:1 67:1 76:1 78:1 81:1 83:1 86:1 96:1 104:1 107:1 
1 6:1 10:1 20:1 22:1 28:1 33:1 34:1 37:1 48:1 50:1 54:1 56:1 67:1 74:1 78:1 81:1 84:1 88:1 98:1 104:1 106:1 
1 6:1 7:1 20:1 22:1 28:1 33:1 34:1 37:1 48:1 50:1 54:1 56:1 67:1 74:1 78:1 81:1 84:1 88:1 98:1 104:1 106:1 
1 3:1 8:1 16:1 21:1 28:1 33:1 34:1 36:1 48:1 50:1 53:1 57:1 67:1 76:1 78:1 81:1 83:1 86:1 96:1 104:1 108:1 
1 2:1 10:1 15:1 22:1 28:1 33:1 34:1 37:1 48:1 50:1 54:1 56:1 67:1 77:1 78:1 81:1 84:1 88:1 98:1 104:1 106:1 
1 2:1 7:1 12:1 21:1 28:1 33:1 34:1 36:1 40:1 50:1 53:1 57:1 67:1 76:1 78:1 81:1 83:1 86:1 96:1 104:1 108:1 
1 3:1 7:1 19:1 21:1 28:1 33:1 34:1 36:1 40:1 50:1 53:1 57:1 67:1 76:1 78:1 81:1 83:1 86:1 96:1 104:1 108:1 
0.9172731435506725 3:1 8:1 14:1 21:1 25:1 33:1 34:1 36:1 48:1 51:1 55:1 59:1 67:1 76:1 78:1 81:1 84:1 86:1 92:1 103:1 107:1 
1 6:1 8:1 14:1 21:1 25:1 33:1 34:1 36:1 48:1 51:1 53:1 59:1 67:1 76:1 78:1 81:1 84:1 86:1 92:1 103:1 107:1 
1 3:1 7:1 12:1 21:1 28:1 33:1 34:1 36:1 48:1 50:1 53:1 57:1 67:1 76:1 78:1 81:1 83:1 86:1 96:1 104:1 108:1 
0.1351952839130712 6:1 7:1 15:1 22:1 31:1 33:1 34:1 37:1 38:1 51:1 53:1 57:1 66:1 76:1 78:1 81:1 84:1 88:1 98:1 104:1 109:1 
1 2:1 8:1 16:1 21:1 28:1 33:1 34:1 36:1 48:1 50:1 53:1 57:1 67:1 76:1 78:1 81:1 83:1 86:1 96:1 104:1 107:1 
1 3:1 7:1 19:1 21:1 28:1 33:1 34:1 36:1 46:1 50:1 53:1 57:1 67:1 76:1 78:1 81:1 83:1 86:1 96:1 104:1 108:1 
1 3:1 7:1 16:1 21:1 28:1 33:1 34:1 36:1 40:1 50:1 53:1 57:1 67:1 76:1 78:1 81:1 83:1 86:1 96:1 104:1 108:1 
1 3:1 7:1 19:1 21:1 28:1 33:1 34:1 36:1 48:1 50:1 53:1 57:1 67:1 76:1 78:1 81:1 83:1 86:1 96:1 104:1 108:1 
1 6:1 8:1 19:1 21:1 25:1 33:1 34:1 36:1 45:1 51:1 53:1 59:1 67:1 76:1 78:1 81:1 84:1 86:1 92:1 103:1 107:1 
1 6:1 8:1 19:1 21:1 25:1 33:1 34:1 36:1 45:1 51:1 55:1 59:1 67:1 76:1 78:1 81:1 84:1 86:1 92:1 103:1 107:1 
1 1:1 7:1 19:1 21:1 28:1 33:1 35:1 37:1 48:1 50:1 53:1 57:1 67:1 76:1 78:1 81:1 84:1 86:1 98:1 101:1 109:1 
1 3:1 8:1 14:1 21:1 25:1 33:1 34:1 36:1 48:1 51:1 53:1 59:1 67:1 76:1 78:1 81:1 84:1 86:1 92:1 103:1 107:1 
1 3:1 8:1 12:1 21:1 28:1 33:1 34:1 36:1 40:1 50:1 53:1 57:1 67:1 76:1 78:1 81:1 83:1 86:1 96:1 104:1 108:1 
0.3209989670291772 6:1 8:1 14:1 21:1 25:1 33:1 34:1 36:1 45:1 51:1 53:1 59:1 67:1 76:1 78:1 81:1 84:1 86:1 92:1 104:1 107:1 
1 2:1 7:1 16:1 21:1 28:1 33:1 34:1 36:1 40:1 50:1 53:1 57:1 67:1 76:1 78:1 81:1 83:1 86:1 96:1 104:1 107:1 
1 2:1 7:1 16:1 21:1 28:1 33:1 34:1 36:1 48:1 50:1 53:1 57:1 67:1 76:1 78:1 81:1 83:1 86:1 96:1 104:1 108:1 
0.5068096809073869 3:1 8:1 19:1 21:1 28:1 33:1 34:1 36:1 46:1 50:1 53:1 57:1 67:1 76:1 78:1 81:1 83:1 86:1 96:1 104:1 108:1 
1 3:1 8:1 19:1 21:1 28:1 33:1 34:1 36:1 46:1 50:1 53:1 57:1 67:1 76:1 78:1 81:1 83:1 86:1 96:1 104:1 107:1 
1 2:1 8:1 19:1 21:1 28:1 33:1 34:1 36:1 40:1 50:1 53:1 57:1 67:1 76:1 78:1 81:1 83:1 86:1 96:1 104:1 107:1 
1 3:1 7:1 19:1 21:1 28:1 33:1 34:1 36:1 40:1 50:1 53:1 57:1 67:1 76:1 78:1 81:1 83:1 86:1 96:1 104:1 107:1 
1 3:1 7:1 20:1 22:1 28:1 33:1 34:1 37:1 48:1 50:1 54:1 56:1 67:1 74:1 78:1 81:1 84:1 88:1 98:1 104:1 106:1 
1 6:1 8:1 19:1 21:1 25:1 33:1 34:1 36:1 48:1 51:1 55:1 59:1 67:1 76:1 78:1 81:1 84:1 86:1 92:1 103:1 107:1 
1 6:1 10:1 15:1 22:1 28:1 33:1 34:1 37:1 48:1 50:1 54:1 56:1 67:1 77:1 78:1 81:1 84:1 88:1 98:1 104:1 106:1 
1 3:1 10:1 20:1 22:1 28:1 33:1 34:1 37:1 48:1 50:1 54:1 56:1 67:1 74:1 78:1 81:1 84:1 88:1 98:1 104:1 106:1 
1 6:1 8:1 14:1 21:1 25:1 33:1 34:1 36:1 45:1 51:1 53:1 59:1 67:1 76:1 78:1 81:1 84:1 86:1 92:1 104:1 111:1 
1 2:1 7:1 12:1 21:1 28:1 33:1 34:1 36:1 48:1 50:1 53:1 57:1 67:1 76:1 78:1 81:1 83:1 86:1 96:1 104:1 107:1 
1 4:1 9:1 19:1 21:1 28:1 33:1 35:1 37:1 48:1 50:1 53:1 57:1 67:1 76:1 78:1 81:1 84:1 86:1 98:1 101:1 109:1 
0.01586951766209619 6:1 7:1 15:1 22:1 30:1 33:1 34:1 37:1 38:1 51:1 53:1 57:1 67:1 76:1 78:1 81:1 84:1 88:1 98:1 104:1 110:1 
1 3:1 7:1 19:1 21:1 28:1 33:1 34:1 36:1 48:1 50:1 53:1 57:1 67:1 76:1 78:1 81:1 83:1 86:1 96:1 104:1 107:1 
1 3:1 8:1 14:1 21:1 25:1 33:1 34:1 36:1 45:1 51:1 53:1 59:1 67:1 76:1 78:1 81:1 84:1 86:1 92:1 103:1 107:1 
1 3:1 7:1 12:1 21:1 28:1 33:1 34:1 36:1 40:1 50:1 53:1 57:1 67:1 76:1 78:1 81:1 83:1 86:1 96:1 104:1 108:1 
0.07524785413964223 3:1 8:1 14:1 21:1 25:1 33:1 34:1 36:1 45:1 51:1 53:1 59:1 67:1 76:1 78:1 81:1 84:1 86:1 92:1 104:1 111:1 
1 3:1 8:1 16:1 21:1 28:1 33:1 34:1 36:1 40:1 50:1 53:1 57:1 67:1 76:1 78:1 81:1 83:1 86:1 96:1 104:1 107:1 
1 2:1 8:1 16:1 21:1 28:1 33:1 34:1 36:1 40:1 50:1 53:1 57:1 67:1 76:1 78:1 81:1 83:1 86:1 96:1 104:1 107:1 
1 3:1 7:1 15:1 22:1 28:1 33:1 34:1 37:1 48:1 50:1 54:1 56:1 67:1 77:1 78:1 81:1 84:1 88:1 98:1 104:1 106:1 
1 3:1 8:1 12:1 21:1 28:1 33:1 34:1 36:1 48:1 50:1 53:1 57:1 67:1 76:1 78:1 81:1 83:1 86:1 96:1 104:1 107:1 
1 2:1 8:1 16:1 21:1 28:1 33:1 34:1 36:1 48:1 50:1 53:1 57:1 67:1 76:1 78:1 81:1 83:1 86:1 96:1 104:1 108:1 
1 2:1 7:1 19:1 21:1 28:1 33:1 34:1 36:1 40:1 50:1 53:1 57:1 67:1 76:1 78:1 81:1 83:1 86:1 96:1 104:1 107:1 
0.3151592840356974 6:1 7:1 20:1 22:1 28:1 33:1 34:1 37:1 48:1 50:1 54:1 56:1 67:1 77:1 78:1 81:1 84:1 88:1 98:1 104:1 106:1 
0.1260461426711731 3:1 8:1 19:1 21:1 25:1 33:1 34:1 36:1 45:1 51:1 53:1 59:1 67:1 76:1 78:1 81:1 84:1 86:1 92:1 103:1 107:1 
1 6:1 8:1 19:1 21:1 25:1 33:1 34:1 36:1 48:1 51:1 53:1 59:1 67:1 76:1 78:1 81:1 84:1 86:1 92:1 103:1 107:1 
1 3:1 7:1 19:1 21:1 28:1 33:1 34:1 36:1 46:1 50:1 53:1 57:1 67:1 76:1 78:1 81:1 83:1 86:1 96:1 104:1 107:1 
1 3:1 8:1 19:1 21:1 28:1 33:1 34:1 36:1 48:1 50:1 53:1 57:1 67:1 76:1 78:1 81:1 83:1 86:1 96:1 104:1 107:1 
1 6:1 8:1 14:1 21:1 25:1 33:1 34:1 36:1 45:1 51:1 55:1 59:1 67:1 76:1 78:1 81:1 84:1 86:1 92:1 103:1 107:1 
1 6:1 8:1 14:1 21:1 25:1 33:1 34:1 36:1 48:1 51:1 55:1 59:1 67:1 76:1 78:1 81:1 84:1 86:1 92:1 103:1 107:1 
1 2:1 8:1 19:1 21:1 28:1 33:1 34:1 36:1 48:1 50:1 53:1 57:1 67:1 76:1 78:1 81:1 83:1 86:1 96:1 104:1 108:1 
1 2:1 8:1 12:1 21:1 28:1 33:1 34:1 36:1 48:1 50:1 53:1 57:1 67:1 76:1 78:1 81:1 83:1 86:1 96:1 104:1 108:1 
1 3:1 8:1 12:1 21:1 28:1 33:1 34:1 36:1 40:1 50:1 53:1 57:1 67:1 76:1 78:1 81:1 83:1 86:1 96:1 104:1 107:1 
1 2:1 8:1 19:1 21:1 28:1 33:1 34:1 36:1 46:1 50:1 53:1 57:1 67:1 76:1 78:1 81:1 83:1 86:1 96:1 104:1 107:1 
1 3:1 8:1 19:1 21:1 28:1 33:1 34:1 36:1 40:1 50:1 53:1 57:1 67:1 76:1 78:1 81:1 83:1 86:1 96:1 104:1 107:1 
0.07866045960565593 3:1 7:1 14:1 22:1 25:1 33:1 34:1 36:1 45:1 50:1 54:1 58:1 61:1 74:1 78:1 81:1 84:1 89:1 92:1 105:1 106:1 
1 3:1 10:1 14:1 22:1 25:1 33:1 34:1 36:1 45:1 50:1 54:1 58:1 66:1 74:1 78:1 81:1 84:1 89:1 92:1 105:1 110:1 
1 6:1 8:1 19:1 21:1 25:1 33:1 34:1 36:1 41:1 51:1 53:1 59:1 67:1 76:1 78:1 81:1 84:1 86:1 92:1 103:1 107:1 
1 2:1 8:1 19:1 21:1 28:1 33:1 34:1 36:1 48:1 50:1 53:1 57:1 67:1 76:1 78:1 81:1 83:1 86:1 96:1 104:1 107:1 
1 2:1 7:1 20:1 22:1 28:1 33:1 34:1 37:1 48:1 50:1 54:1 56:1 67:1 74:1 78:1 81:1 84:1 88:1 98:1 104:1 106:1 
1 2:1 7:1 16:1 21:1 28:1 33:1 34:1 36:1 40:1 50:1 53:1 57:1 67:1 76:1 78:1 81:1 83:1 86:1 96:1 104:1 108:1 
0.4500916251707852 6:1 8:1 14:1 21:1 25:1 33:1 34:1 36:1 48:1 51:1 53:1 59:1 67:1 76:1 78:1 81:1 84:1 86:1 92:1 104:1 107:1 
1 3:1 7:1 12:1 21:1 28:1 33:1 34:1 36:1 48:1 50:1 53:1 57:1 67:1 76:1 78:1 81:1 83:1 86:1 96:1 104:1 107:1 
1 2:1 10:1 15:1 22:1 28:1 33:1 34:1 37:1 48:1 50:1 54:1 56:1 67:1 74:1 78:1 81:1 84:1 88:1 98:1 104:1 106:1 
1 3:1 7:1 12:1 21:1 28:1 33:1 34:1 36:1 40:1 50:1 53:1 57:1 67:1 76:1 78:1 81:1 83:1 86:1 96:1 104:1 107:1 
1 4:1 10:1 15:1 22:1 28:1 33:1 34:1 37:1 48:1 50:1 54:1 56:1 67:1 77:1 78:1 81:1 84:1 88:1 98:1 104:1 106:1 
1 6:1 8:1 14:1 21:1 25:1 33:1 34:1 36:1 45:1 51:1 53:1 59:1 67:1 76:1 78:1 81:1 84:1 86:1 92:1 103:1 107:1 
1 3:1 8:1 16:1 21:1 28:1 33:1 34:1 36:1 40:1 50:1 53:1 57:1 67:1 76:1 78:1 81:1 83:1 86:1 96:1 104:1 108:1 
1 3:1 8:1 16:1 21:1 28:1 33:1 34:1 36:1 46:1 50:1 53:1 57:1 67:1 76:1 78:1 81:1 83:1 86:1 96:1 104:1 107:1 
0.04930331967414336 3:1 8:1 14:1 21:1 25:1 33:1 34:1 36:1 41:1 51:1 53:1 59:1 67:1 76:1 78:1 81:1 84:1 86:1 92:1 103:1 107:1 
1 2:1 7:1 12:1 21:1 28:1 33:1 34:1 36:1 40:1 50:1 53:1 57:1 67:1 76:1 78:1 81:1 83:1 86:1 96:1 104:1 107:1 
0.9605807595480297 3:1 7:1 13:1 22:1 31:1 33:1 34:1 37:1 38:1 51:1 53:1 57:1 67:1 76:1 78:1 81:1 84:1 88:1 98:1 104:1 110:1 
0.1766719405534392 3:1 7:1 15:1 22:1 30:1 33:1 34:1 37:1 38:1 51:1 53:1 57:1 66:1 76:1 78:1 81:1 84:1 88:1 98:1 104:1 109:1 
0.5861553048696135 3:1 7:1 15:1 22:1 30:1 33:1 34:1 37:1 38:1 51:1 53:1 57:1 67:1 76:1 78:1 81:1 84:1 88:1 98:1 104:1 110:1 
0.1443622960777271 3:1 7:1 13:1 22:1 31:1 33:1 34:1 37:1 38:1 51:1 53:1 57:1 66:1 76:1 78:1 81:1 84:1 88:1 98:1 104:1 106:1 
1 3:1 7:1 15:1 22:1 31:1 33:1 34:1 37:1 38:1 51:1 53:1 57:1 67:1 75:1 78:1 81:1 84:1 88:1 98:1 104:1 109:1 
0.4496222379924039 3:1 7:1 13:1 22:1 31:1 33:1 34:1 37:1 38:1 51:1 53:1 57:1 67:1 76:1 78:1 81:1 84:1 88:1 98:1 104:1 106:1 
1 3:1 7:1 15:1 22:1 30:1 33:1 34:1 37:1 38:1 51:1 53:1 57:1 67:1 75:1 78:1 81:1 84:1 88:1 98:1 104:1 109:1 
0.2828241147966826 6:1 7:1 13:1 22:1 31:1 33:1 34:1 37:1 38:1 51:1 53:1 57:1 67:1 76:1 78:1 81:1 84:1 88:1 98:1 104:1 109:1 
0.6640257549298797 3:1 7:1 13:1 22:1 30:1 33:1 34:1 37:1 38:1 51:1 53:1 57:1 67:1 76:1 78:1 81:1 84:1 88:1 98:1 104:1 110:1 
0.1305477975268098 3:1 7:1 13:1 22:1 30:1 33:1 34:1 37:1 38:1 51:1 53:1 57:1 67:1 76:1 78:1 81:1 84:1 88:1 98:1 104:1 106:1 
1 4:1 7:1 11:1 22:1 26:1 32:1 34:1 36:1 48:1 50:1 54:1 56:1 60:1 69:1 78:1 81:1 85:1 87:1 98:1 101:1 106:1 
0.2448259805261258 3:1 7:1 13:1 22:1 30:1 33:1 34:1 37:1 38:1 51:1 53:1 57:1 66:1 76:1 78:1 81:1 84:1 88:1 98:1 104:1 106:1 
0.901348481455171 3:1 7:1 15:1 22:1 31:1 33:1 34:1 37:1 38:1 51:1 53:1 57:1 67:1 76:1 78:1 81:1 84:1 88:1 98:1 104:1 109:1 
0.9924559180261117 3:1 7:1 15:1 22:1 30:1 33:1 34:1 37:1 38:1 51:1 53:1 57:1 67:1 76:1 78:1 81:1 84:1 88:1 98:1 104:1 109:1 
0.311545043520177 3:1 7:1 15:1 22:1 31:1 33:1 34:1 37:1 38:1 51:1 53:1 57:1 66:1 76:1 78:1 81:1 84:1 88:1 98:1 104:1 109:1 
0.4206262034803883 6:1 7:1 13:1 22:1 30:1 33:1 34:1 37:1 38:1 51:1 53:1 57:1 67:1 76:1 78:1 81:1 84:1 88:1 98:1 104:1 109:1 
1 2:1 7:1 20:1 22:1 28:1 33:1 35:1 37:1 49:1 50:1 52:1 56:1 68:1 77:1 78:1 79:1 84:1 88:1 98:1 101:1 109:1 
0.5094091333971322 4:1 7:1 11:1 22:1 26:1 33:1 34:1 36:1 48:1 50:1 54:1 56:1 60:1 69:1 78:1 81:1 85:1 87:1 98:1 101:1 106:1 
1 6:1 7:1 11:1 22:1 26:1 32:1 34:1 36:1 49:1 50:1 54:1 56:1 60:1 69:1 78:1 81:1 85:1 87:1 98:1 101:1 106:1 
0.3766260364170183 3:1 7:1 11:1 22:1 26:1 33:1 34:1 36:1 48:1 50:1 54:1 56:1 60:1 69:1 78:1 81:1 85:1 87:1 98:1 101:1 106:1 
0.01361886406297857 3:1 7:1 15:1 22:1 31:1 33:1 34:1 37:1 38:1 51:1 53:1 57:1 67:1 76:1 78:1 81:1 84:1 88:1 98:1 104:1 110:1 
0.09003159719715488 4:1 7:1 15:1 22:1 30:1 33:1 34:1 37:1 38:1 51:1 53:1 57:1 67:1 75:1 78:1 81:1 84:1 88:1 98:1 104:1 109:1 
1 4:1 7:1 20:1 22:1 28:1 33:1 35:1 37:1 49:1 50:1 52:1 56:1 68:1 77:1 78:1 79:1 84:1 88:1 98:1 101:1 109:1 
1 3:1 7:1 20:1 22:1 28:1 33:1 35:1 37:1 48:1 50:1 52:1 56:1 68:1 77:1 78:1 79:1 84:1 88:1 98:1 101:1 109:1 
1 6:1 7:1 11:1 22:1 26:1 32:1 34:1 36:1 48:1 50:1 54:1 56:1 60:1 69:1 78:1 81:1 85:1 87:1 98:1 101:1 106:1 
1 1:1 7:1 20:1 22:1 28:1 33:1 35:1 37:1 49:1 50:1 52:1 56:1 68:1 77:1 78:1 79:1 84:1 88:1 98:1 101:1 109:1 
1 3:1 7:1 20:1 22:1 28:1 33:1 35:1 37:1 49:1 50:1 52:1 56:1 68:1 77:1 78:1 79:1 84:1 88:1 98:1 101:1 109:1 
1 2:1 7:1 20:1 22:1 28:1 33:1 35:1 37:1 48:1 50:1 52:1 56:1 68:1 77:1 78:1 79:1 84:1 88:1 98:1 101:1 109:1 
0.2381241781394279 4:1 7:1 15:1 22:1 31:1 33:1 34:1 37:1 38:1 51:1 53:1 57:1 67:1 75:1 78:1 81:1 84:1 88:1 98:1 104:1 109:1 
1 4:1 7:1 15:1 22:1 30:1 33:1 34:1 37:1 38:1 51:1 53:1 57:1 67:1 76:1 78:1 81:1 84:1 88:1 98:1 104:1 109:1 
1 1:1 7:1 20:1 22:1 28:1 33:1 35:1 37:1 48:1 50:1 52:1 56:1 68:1 77:1 78:1 79:1 84:1 88:1 98:1 101:1 109:1 
1 6:1 7:1 11:1 22:1 26:1 33:1 34:1 36:1 48:1 50:1 54:1 56:1 60:1 69:1 78:1 81:1 85:1 87:1 98:1 101:1 106:1 
1 4:1 7:1 20:1 22:1 28:1 33:1 35:1 37:1 48:1 50:1 52:1 56:1 68:1 77:1 78:1 79:1 84:1 88:1 98:1 101:1 109:1 
1 3:1 7:1 11:1 22:1 26:1 32:1 34:1 36:1 48:1 50:1 54:1 56:1 60:1 69:1 78:1 81:1 85:1 87:1 98:1 101:1 106:1 
0.8901237798724424 4:1 7:1 15:1 22:1 31:1 33:1 34:1 37:1 38:1 51:1 53:1 57:1 67:1 76:1 78:1 81:1 84:1 88:1 98:1 104:1 109:1 
-1 6:1 8:1 20:1 21:1 27:1 33:1 34:1 36:1 44:1 50:1 53:1 57:1 67:1 76:1 78:1 81:1 84:1 86:1 95:1 102:1 108:1 
-1 6:1 7:1 20:1 21:1 23:1 33:1 34:1 36:1 40:1 50:1 53:1 57:1 67:1 76:1 78:1 81:1 84:1 86:1 93:1 102:1 107:1 
-1 6:1 8:1 20:1 21:1 27:1 33:1 34:1 36:1 44:1 50:1 53:1 57:1 67:1 76:1 78:1 81:1 84:1 86:1 93:1 102:1 107:1 
-1 6:1 7:1 20:1 21:1 27:1 33:1 34:1 36:1 40:1 50:1 53:1 57:1 67:1 76:1 78:1 81:1 84:1 86:1 95:1 103:1 107:1 
-1 6:1 7:1 19:1 21:1 27:1 33:1 34:1 36:1 44:1 50:1 53:1 57:1 67:1 76:1 78:1 81:1 84:1 86:1 95:1 102:1 108:1 
-1 3:1 7:1 15:1 21:1 27:1 33:1 34:1 36:1 44:1 50:1 53:1 56:1 67:1 76:1 78:1 81:1 84:1 86:1 95:1 105:1 110:1 
-1 2:1 8:1 19:1 21:1 27:1 33:1 34:1 36:1 44:1 50:1 53:1 57:1 67:1 76:1 78:1 81:1 84:1 86:1 95:1 102:1 107:1 
-1 6:1 8:1 20:1 21:1 27:1 33:1 34:1 36:1 48:1 50:1 53:1 57:1 67:1 76:1 78:1 81:1 84:1 86:1 93:1 103:1 108:1 
-1 6:1 7:1 20:1 21:1 23:1 33:1 34:1 36:1 44:1 50:1 53:1 56:1 67:1 76:1 78:1 81:1 84:1 86:1 95:1 105:1 110:1 
-0.9979399443583977 6:1 10:1 14:1 21:1 28:1 33:1 34:1 36:1 44:1 51:1 53:1 57:1 67:1 76:1 78:1 81:1 84:1 86:1 93:1 104:1 106:1 
-1 6:1 7:1 19:1 21:1 27:1 33:1 34:1 36:1 48:1 50:1 53:1 57:1 67:1 76:1 78:1 81:1 84:1 86:1 93:1 102:1 107:1 
-1 6:1 7:1 19:1 21:1 27:1 33:1 34:1 36:1 42:1 50:1 53:1 57:1 67:1 76:1 78:1 81:1 84:1 86:1 95:1 102:1 108:1 
-1 2:1 7:1 20:1 21:1 23:1 33:1 34:1 36:1 40:1 50:1 53:1 57:1 67:1 76:1 78:1 81:1 84:1 86:1 95:1 102:1 108:1 
-1 6:1 7:1 15:1 21:1 23:1 33:1 34:1 36:1 44:1 50:1 53:1 56:1 67:1 76:1 78:1 81:1 84:1 86:1 93:1 103:1 107:1 
-1 3:1 7:1 15:1 21:1 27:1 33:1 34:1 36:1 48:1 50:1 53:1 56:1 67:1 76:1 78:1 81:1 84:1 86:1 95:1 105:1 107:1 
-1 3:1 10:1 15:1 22:1 28:1 33:1 34:1 37:1 45:1 50:1 53:1 57:1 67:1 76:1 78:1 81:1 84:1 86:1 93:1 105:1 111:1 
-1 3:1 7:1 20:1 21:1 23:1 33:1 34:1 36:1 44:1 50:1 53:1 56:1 67:1 76:1 78:1 81:1 84:1 86:1 95:1 105:1 110:1 
-1 6:1 7:1 20:1 21:1 23:1 33:1 34:1 36:1 45:1 50:1 53:1 56:1 67:1 76:1 78:1 81:1 84:1 86:1 95:1 105:1 107:1 
-1 6:1 7:1 20:1 21:1 23:1 33:1 34:1 36:1 42:1 50:1 53:1 57:1 67:1 76:1 78:1 81:1 84:1 86:1 95:1 103:1 107:1 
-1 6:1 10:1 14:1 22:1 28:1 33:1 34:1 37:1 44:1 50:1 53:1 57:1 67:1 76:1 78:1 81:1 84:1 86:1 95:1 104:1 111:1 
-1 2:1 8:1 20:1 21:1 23:1 33:1 34:1 36:1 42:1 50:1 53:1 57:1 67:1 76:1 78:1 81:1 84:1 86:1 95:1 103:1 107:1 
-0.4146871679009432 6:1 10:1 14:1 21:1 28:1 33:1 34:1 36:1 47:1 51:1 53:1 57:1 67:1 75:1 78:1 81:1 84:1 86:1 93:1 104:1 106:1 
-1 6:1 8:1 19:1 21:1 23:1 33:1 34:1 36:1 44:1 50:1 53:1 57:1 67:1 76:1 78:1 81:1 84:1 86:1 95:1 103:1 107:1 
-1 6:1 7:1 20:1 21:1 23:1 33:1 34:1 36:1 40:1 50:1 53:1 57:1 67:1 76:1 78:1 81:1 84:1 86:1 95:1 103:1 107:1 
-1 6:1 7:1 19:1 21:1 27:1 33:1 34:1 36:1 42:1 50:1 53:1 57:1 67:1 76:1 78:1 81:1 84:1 86:1 95:1 102:1 107:1 
-1 6:1 10:1 20:1 21:1 23:1 33:1 35:1 37:1 48:1 51:1 53:1 57:1 67:1 76:1 78:1 81:1 84:1 86:1 95:1 104:1 106:1 
-1 3:1 10:1 19:1 21:1 27:1 33:1 35:1 37:1 45:1 51:1 53:1 57:1 67:1 76:1 78:1 81:1 84:1 86:1 95:1 104:1 106:1 
-1 3:1 7:1 20:1 21:1 27:1 33:1 34:1 36:1 45:1 50:1 53:1 56:1 67:1 76:1 78:1 81:1 84:1 86:1 95:1 105:1 107:1 
-1 2:1 8:1 19:1 21:1 23:1 33:1 34:1 36:1 42:1 50:1 53:1 57:1 67:1 76:1 78:1 81:1 84:1 86:1 95:1 103:1 107:1 
-1 3:1 8:1 19:1 21:1 27:1 33:1 35:1 37:1 44:1 51:1 53:1 57:1 67:1 76:1 78:1 81:1 84:1 86:1 97:1 104:1 106:1 
-1 6:1 7:1 19:1 21:1 27:1 33:1 34:1 36:1 42:1 50:1 53:1 57:1 67:1 76:1 78:1 81:1 84:1 86:1 93:1 102:1 108:1 
-1 6:1 7:1 20:1 21:1 27:1 33:1 34:1 36:1 44:1 50:1 53:1 56:1 67:1 76:1 78:1 81:1 84:1 86:1 95:1 103:1 107:1 
-1 3:1 8:1 20:1 21:1 23:1 33:1 35:1 37:1 44:1 51:1 53:1 57:1 67:1 76:1 78:1 81:1 84:1 86:1 95:1 104:1 106:1 
-1 3:1 10:1 19:1 21:1 23:1 33:1 35:1 37:1 44:1 51:1 53:1 57:1 67:1 76:1 78:1 81:1 84:1 86:1 95:1 104:1 106:1 
-1 2:1 7:1 19:1 21:1 27:1 33:1 34:1 36:1 42:1 50:1 53:1 57:1 67:1 76:1 78:1 81:1 84:1 86:1 93:1 103:1 108:1 
-1 6:1 7:1 20:1 21:1 23:1 33:1 34:1 36:1 45:1 50:1 53:1 56:1 67:1 76:1 78:1 81:1 84:1 86:1 95:1 103:1 110:1 
-1 6:1 7:1 19:1 21:1 23:1 33:1 34:1 36:1 42:1 50:1 53:1 57:1 67:1 76:1 78:1 81:1 84:1 86:1 93:1 103:1 108:1 
-1 6:1 8:1 19:1 21:1 23:1 33:1 34:1 36:1 44:1 50:1 53:1 57:1 67:1 76:1 78:1 81:1 84:1 86:1 93:1 102:1 108:1 
-1 6:1 8:1 20:1 21:1 27:1 33:1 34:1 36:1 42:1 50:1 53:1 57:1 67:1 76:1 78:1 81:1 84:1 86:1 93:1 102:1 108:1 
-1 2:1 8:1 19:1 21:1 23:1 33:1 34:1 36:1 40:1 50:1 53:1 57:1 67:1 76:1 78:1 81:1 84:1 86:1 95:1 103:1 108:1 
-0.8357339932114408 3:1 10:1 14:1 21:1 28:1 33:1 34:1 36:1 45:1 51:1 53:1 57:1 67:1 76:1 78:1 81:1 84:1 86:1 93:1 104:1 106:1 
-0.1694001898546415 6:1 10:1 14:1 21:1 28:1 33:1 34:1 36:1 45:1 51:1 53:1 57:1 63:1 75:1 78:1 81:1 84:1 86:1 95:1 104:1 106:1 
-0.03120971243692546 6:1 10:1 14:1 21:1 28:1 33:1 34:1 36:1 47:1 51:1 53:1 57:1 63:1 76:1 78:1 81:1 84:1 86:1 95:1 104:1 106:1 
-0.8931356107509291 3:1 7:1 14:1 21:1 28:1 33:1 34:1 36:1 45:1 51:1 53:1 57:1 66:1 72:1 78:1 81:1 84:1 86:1 93:1 104:1 106:1 
-0.1211200830510756 6:1 10:1 14:1 21:1 28:1 33:1 34:1 36:1 45:1 51:1 53:1 57:1 66:1 72:1 78:1 81:1 84:1 86:1 95:1 104:1 106:1 
-0.08290593580021162 3:1 7:1 14:1 21:1 28:1 33:1 34:1 36:1 47:1 51:1 53:1 57:1 66:1 75:1 78:1 81:1 84:1 86:1 95:1 104:1 106:1 
-0.1383538035950355 6:1 10:1 14:1 21:1 28:1 33:1 34:1 36:1 45:1 51:1 53:1 57:1 67:1 75:1 78:1 81:1 84:1 86:1 95:1 104:1 106:1 
-0.9572541837242756 3:1 7:1 13:1 21:1 28:1 33:1 34:1 36:1 48:1 51:1 53:1 57:1 67:1 75:1 78:1 81:1 84:1 86:1 93:1 104:1 106:1 
-0.4617222629782652 3:1 7:1 14:1 21:1 28:1 33:1 34:1 36:1 45:1 51:1 53:1 57:1 66:1 75:1 78:1 81:1 84:1 86:1 93:1 104:1 106:1 
-1 6:1 10:1 14:1 21:1 28:1 33:1 34:1 36:1 45:1 51:1 53:1 57:1 67:1 76:1 78:1 81:1 84:1 86:1 93:1 104:1 106:1 
-0.2747494792863373 6:1 10:1 14:1 21:1 28:1 33:1 34:1 36:1 45:1 51:1 53:1 57:1 63:1 76:1 78:1 81:1 84:1 86:1 93:1 104:1 106:1 
-1 6:1 10:1 14:1 21:1 28:1 33:1 34:1 36:1 45:1 51:1 53:1 57:1 67:1 76:1 78:1 81:1 84:1 86:1 95:1 104:1 106:1 
-0.2121211680987381 6:1 10:1 14:1 21:1 28:1 33:1 34:1 36:1 45:1 51:1 53:1 57:1 67:1 72:1 78:1 81:1 84:1 86:1 95:1 104:1 106:1 
-0.5491709328813802 6:1 10:1 14:1 21:1 28:1 33:1 34:1 36:1 48:1 51:1 53:1 57:1 67:1 76:1 78:1 81:1 84:1 86:1 93:1 104:1 106:1 
-1 6:1 10:1 14:1 21:1 28:1 33:1 34:1 36:1 47:1 51:1 53:1 57:1 67:1 76:1 78:1 81:1 84:1 86:1 93:1 104:1 106:1 
-0.02220180966855126 6:1 10:1 14:1 21:1 28:1 33:1 34:1 36:1 47:1 51:1 53:1 57:1 67:1 75:1 78:1 81:1 84:1 86:1 95:1 104:1 106:1 
-1 3:1 7:1 13:1 21:1 28:1 33:1 34:1 36:1 48:1 51:1 53:1 57:1 67:1 76:1 78:1 81:1 84:1 86:1 93:1 104:1 106:1 
-0.4626095479704456 3:1 7:1 14:1 21:1 28:1 33:1 34:1 36:1 48:1 51:1 53:1 57:1 66:1 76:1 78:1 81:1 84:1 86:1 95:1 104:1 106:1 
-0.9320131817289113 6:1 10:1 14:1 21:1 28:1 33:1 34:1 36:1 45:1 51:1 53:1 57:1 66:1 76:1 78:1 81:1 84:1 86:1 93:1 104:1 106:1 
-1 6:1 10:1 14:1 21:1 28:1 33:1 34:1 36:1 47:1 51:1 53:1 57:1 67:1 76:1 78:1 81:1 84:1 86:1 95:1 104:1 106:1 
-0.03444637759218073 6:1 10:1 14:1 21:1 28:1 33:1 34:1 36:1 45:1 51:1 53:1 57:1 63:1 76:1 78:1 81:1 84:1 86:1 95:1 104:1 106:1 
-0.2526822310773815 6:1 10:1 14:1 21:1 28:1 33:1 34:1 36:1 45:1 51:1 53:1 57:1 67:1 72:1 78:1 81:1 84:1 86:1 93:1 104:1 106:1 
-1 3:1 7:1 14:1 21:1 28:1 33:1 34:1 36:1 48:1 51:1 53:1 57:1 67:1 76:1 78:1 81:1 84:1 86:1 93:1 104:1 106:1 
-0.9456394107750701 6:1 10:1 14:1 21:1 28:1 33:1 34:1 36:1 45:1 51:1 53:1 57:1 66:1 76:1 78:1 81:1 84:1 86:1 95:1 104:1 106:1 
-1 3:1 10:1 14:1 21:1 28:1 33:1 34:1 36:1 48:1 51:1 53:1 57:1 67:1 76:1 78:1 81:1 84:1 86:1 95:1 104:1 106:1 
-0.961699402523697 3:1 7:1 14:1 21:1 28:1 33:1 34:1 36:1 48:1 51:1 53:1 57:1 63:1 76:1 78:1 81:1 84:1 86:1 93:1 104:1 106:1 
-1 3:1 7:1 14:1 21:1 28:1 33:1 34:1 36:1 48:1 51:1 53:1 57:1 67:1 76:1 78:1 81:1 84:1 86:1 95:1 104:1 106:1 
-0.8708728376290164 3:1 7:1 14:1 21:1 28:1 33:1 34:1 36:1 45:1 51:1 53:1 57:1 66:1 75:1 78:1 81:1 84:1 86:1 95:1 104:1 106:1 
-1 3:1 7:1 14:1 21:1 28:1 33:1 34:1 36:1 47:1 51:1 53:1 57:1 67:1 76:1 78:1 81:1 84:1 86:1 93:1 104:1 106:1 
-0.2913810576268601 3:1 7:1 13:1 21:1 28:1 33:1 34:1 36:1 47:1 51:1 53:1 57:1 66:1 75:1 78:1 81:1 84:1 86:1 93:1 104:1 106:1 
-0.008878615757724039 3:1 7:1 14:1 21:1 28:1 33:1 34:1 36:1 45:1 51:1 53:1 57:1 63:1 72:1 78:1 81:1 84:1 86:1 93:1 104:1 106:1 
-0.06319715347925131 3:1 7:1 13:1 21:1 28:1 33:1 34:1 36:1 47:1 51:1 53:1 57:1 66:1 72:1 78:1 81:1 84:1 86:1 93:1 104:1 106:1 
-0.3815449268154541 3:1 7:1 14:1 21:1 28:1 33:1 34:1 36:1 48:1 51:1 53:1 57:1 66:1 76:1 78:1 81:1 84:1 86:1 93:1 104:1 106:1 
-0.1033336619565 3:1 7:1 14:1 21:1 28:1 33:1 34:1 36:1 44:1 51:1 53:1 57:1 66:1 75:1 78:1 81:1 84:1 86:1 93:1 104:1 106:1 
-0.1394915621394225 3:1 7:1 14:1 21:1 28:1 33:1 34:1 36:1 45:1 51:1 53:1 57:1 63:1 75:1 78:1 81:1 84:1 86:1 95:1 104:1 106:1 
-0.3758674937213594 3:1 7:1 14:1 21:1 28:1 33:1 34:1 36:1 48:1 51:1 53:1 57:1 67:1 75:1 78:1 81:1 84:1 86:1 93:1 104:1 106:1 
-0.3961267954971021 3:1 7:1 14:1 21:1 28:1 33:1 34:1 36:1 45:1 51:1 53:1 57:1 66:1 72:1 78:1 81:1 84:1 86:1 95:1 104:1 106:1 
-1 6:1 10:1 14:1 21:1 28:1 33:1 34:1 36:1 45:1 51:1 53:1 57:1 67:1 75:1 78:1 81:1 84:1 86:1 93:1 104:1 106:1 
-1 3:1 7:1 14:1 21:1 28:1 33:1 34:1 36:1 45:1 51:1 53:1 57:1 67:1 76:1 78:1 81:1 84:1 86:1 93:1 104:1 106:1 
-0.6445108659057017 3:1 7:1 13:1 21:1 28:1 33:1 34:1 36:1 48:1 51:1 53:1 57:1 67:1 76:1 78:1 81:1 84:1 86:1 95:1 104:1 106:1 
-0.8977158411768166 3:1 10:1 14:1 21:1 28:1 33:1 34:1 36:1 47:1 51:1 53:1 57:1 67:1 76:1 78:1 81:1 84:1 86:1 95:1 104:1 106:1 
-0.2238854560922435 3:1 7:1 14:1 21:1 28:1 33:1 34:1 36:1 48:1 51:1 53:1 57:1 67:1 72:1 78:1 81:1 84:1 86:1 93:1 104:1 106:1 
-1 3:1 10:1 14:1 21:1 28:1 33:1 34:1 36:1 47:1 51:1 53:1 57:1 67:1 76:1 78:1 81:1 84:1 86:1 93:1 104:1 106:1 
-1 3:1 7:1 14:1 21:1 28:1 33:1 34:1 36:1 48:1 51:1 53:1 57:1 67:1 75:1 78:1 81:1 84:1 86:1 95:1 104:1 106:1 
-0.6360233075408766 3:1 7:1 13:1 21:1 28:1 33:1 34:1 36:1 48:1 51:1 53:1 57:1 66:1 76:1 78:1 81:1 84:1 86:1 93:1 104:1 106:1 
-0.9401093304724493 3:1 10:1 14:1 21:1 28:1 33:1 34:1 36:1 48:1 51:1 53:1 57:1 67:1 76:1 78:1 81:1 84:1 86:1 93:1 104:1 106:1 
-0.2908214610964866 3:1 7:1 14:1 21:1 28:1 33:1 34:1 36:1 44:1 51:1 53:1 57:1 67:1 76:1 78:1 81:1 84:1 86:1 93:1 104:1 106:1 
-0.2430076852835592 4:1 7:1 15:1 22:1 28:1 33:1 35:1 37:1 48:1 50:1 55:1 59:1 67:1 74:1 78:1 81:1 84:1 88:1 98:1 104:1 109:1 
-1 3:1 8:1 16:1 21:1 28:1 33:1 34:1 36:1 39:1 50:1 53:1 57:1 67:1 76:1 78:1 81:1 83:1 88:1 98:1 101:1 112:1 
-1 6:1 7:1 17:1 22:1 28:1 33:1 34:1 37:1 45:1 50:1 53:1 59:1 67:1 76:1 78:1 81:1 84:1 90:1 92:1 104:1 106:1 
-1 6:1 7:1 18:1 22:1 28:1 33:1 34:1 37:1 41:1 50:1 53:1 59:1 67:1 76:1 78:1 81:1 84:1 90:1 92:1 104:1 106:1 
-0.5231925719795313 3:1 7:1 12:1 21:1 28:1 33:1 34:1 36:1 39:1 50:1 53:1 57:1 62:1 71:1 78:1 81:1 83:1 88:1 98:1 101:1 112:1 
-1 6:1 7:1 18:1 22:1 28:1 33:1 34:1 37:1 47:1 50:1 53:1 59:1 67:1 76:1 78:1 81:1 84:1 90:1 92:1 104:1 106:1 
-1 3:1 7:1 12:1 21:1 28:1 33:1 34:1 36:1 48:1 50:1 53:1 57:1 67:1 76:1 78:1 81:1 83:1 88:1 98:1 101:1 112:1 
-1 3:1 7:1 18:1 22:1 28:1 33:1 34:1 37:1 41:1 50:1 53:1 59:1 67:1 76:1 78:1 81:1 84:1 90:1 92:1 104:1 106:1 
-0.7483481343769092 3:1 8:1 16:1 21:1 28:1 33:1 34:1 36:1 48:1 50:1 53:1 57:1 67:1 71:1 78:1 81:1 83:1 88:1 98:1 101:1 112:1 
-1 3:1 7:1 18:1 22:1 28:1 33:1 34:1 37:1 47:1 50:1 53:1 59:1 67:1 76:1 78:1 81:1 84:1 90:1 92:1 104:1 106:1 
-1 4:1 7:1 15:1 22:1 28:1 33:1 35:1 37:1 48:1 50:1 55:1 57:1 67:1 74:1 78:1 81:1 84:1 88:1 98:1 104:1 109:1 
-1 3:1 8:1 12:1 21:1 28:1 33:1 34:1 36:1 48:1 50:1 53:1 57:1 62:1 76:1 78:1 81:1 83:1 88:1 98:1 101:1 112:1 
-1 3:1 7:1 19:1 22:1 28:1 33:1 34:1 37:1 41:1 50:1 53:1 59:1 67:1 76:1 78:1 81:1 84:1 90:1 92:1 104:1 106:1 
-1 6:1 10:1 15:1 22:1 28:1 33:1 35:1 37:1 48:1 50:1 53:1 59:1 67:1 74:1 78:1 81:1 84:1 88:1 98:1 104:1 109:1 
-1 3:1 8:1 12:1 21:1 28:1 33:1 34:1 36:1 48:1 50:1 53:1 57:1 67:1 76:1 78:1 81:1 83:1 88:1 98:1 101:1 112:1 
-1 3:1 8:1 12:1 21:1 28:1 33:1 34:1 36:1 48:1 50:1 53:1 57:1 67:1 71:1 78:1 81:1 83:1 88:1 98:1 101:1 112:1 
-1 3:1 8:1 12:1 21:1 28:1 33:1 34:1 36:1 39:1 50:1 53:1 57:1 67:1 76:1 78:1 81:1 83:1 88:1 98:1 101:1 112:1 
-1 3:1 7:1 18:1 22:1 28:1 33:1 34:1 37:1 45:1 50:1 53:1 59:1 67:1 76:1 78:1 81:1 84:1 90:1 92:1 104:1 106:1 
-0.5078487435809441 6:1 7:1 19:1 22:1 28:1 33:1 34:1 37:1 47:1 50:1 53:1 59:1 67:1 76:1 78:1 81:1 84:1 90:1 92:1 105:1 106:1 
-1 4:1 10:1 11:1 22:1 28:1 33:1 35:1 37:1 48:1 50:1 55:1 57:1 67:1 74:1 78:1 81:1 84:1 88:1 98:1 104:1 109:1 
-1 3:1 7:1 11:1 22:1 28:1 33:1 35:1 37:1 48:1 50:1 55:1 57:1 67:1 74:1 78:1 81:1 84:1 88:1 98:1 104:1 109:1 
-1 4:1 7:1 11:1 22:1 28:1 33:1 35:1 37:1 48:1 50:1 55:1 57:1 67:1 74:1 78:1 81:1 84:1 88:1 98:1 104:1 109:1 
-1 6:1 7:1 19:1 22:1 28:1 33:1 34:1 37:1 41:1 50:1 53:1 59:1 67:1 76:1 78:1 81:1 84:1 90:1 92:1 104:1 106:1 
-1 4:1 8:1 12:1 21:1 28:1 33:1 34:1 36:1 48:1 50:1 53:1 57:1 67:1 76:1 78:1 81:1 83:1 88:1 98:1 101:1 112:1 
-1 4:1 10:1 15:1 22:1 28:1 33:1 35:1 37:1 48:1 50:1 53:1 57:1 67:1 74:1 78:1 81:1 84:1 88:1 98:1 104:1 109:1 
-1 6:1 7:1 17:1 22:1 28:1 33:1 34:1 37:1 48:1 50:1 53:1 59:1 67:1 76:1 78:1 81:1 84:1 90:1 92:1 104:1 106:1 
-1 6:1 10:1 11:1 22:1 28:1 33:1 35:1 37:1 48:1 50:1 53:1 57:1 67:1 74:1 78:1 81:1 84:1 88:1 98:1 104:1 109:1 
-1 3:1 7:1 19:1 22:1 28:1 33:1 34:1 37:1 45:1 50:1 53:1 59:1 67:1 76:1 78:1 81:1 84:1 90:1 92:1 104:1 106:1 
-1 6:1 7:1 11:1 22:1 28:1 33:1 35:1 37:1 48:1 50:1 55:1 57:1 67:1 74:1 78:1 81:1 84:1 88:1 98:1 104:1 109:1 
-1 6:1 10:1 15:1 22:1 28:1 33:1 35:1 37:1 48:1 50:1 55:1 57:1 67:1 74:1 78:1 81:1 84:1 88:1 98:1 104:1 109:1 
-1 6:1 7:1 17:1 22:1 28:1 33:1 34:1 37:1 41:1 50:1 53:1 59:1 67:1 76:1 78:1 81:1 84:1 90:1 92:1 104:1 106:1 
-0.7988407305176583 6:1 7:1 15:1 22:1 28:1 33:1 35:1 37:1 48:1 50:1 55:1 59:1 67:1 74:1 78:1 81:1 84:1 88:1 98:1 104:1 109:1 
-1 3:1 7:1 11:1 22:1 28:1 33:1 35:1 37:1 48:1 50:1 53:1 57:1 67:1 74:1 78:1 81:1 84:1 88:1 98:1 104:1 109:1 
-0.2652149944143651 3:1 8:1 12:1 21:1 28:1 33:1 34:1 36:1 39:1 50:1 53:1 57:1 67:1 71:1 78:1 81:1 83:1 88:1 98:1 101:1 112:1 
-1 6:1 10:1 11:1 22:1 28:1 33:1 35:1 37:1 48:1 50:1 55:1 57:1 67:1 74:1 78:1 81:1 84:1 88:1 98:1 104:1 109:1 
-1 3:1 7:1 17:1 22:1 28:1 33:1 34:1 37:1 48:1 50:1 53:1 59:1 67:1 76:1 78:1 81:1 84:1 90:1 92:1 104:1 106:1 
-0.6607398861147587 4:1 8:1 16:1 21:1 28:1 33:1 34:1 36:1 48:1 50:1 53:1 57:1 67:1 76:1 78:1 81:1 83:1 88:1 98:1 101:1 112:1 
-1 3:1 7:1 19:1 22:1 28:1 33:1 34:1 37:1 41:1 50:1 53:1 59:1 67:1 76:1 78:1 81:1 84:1 90:1 92:1 105:1 106:1 
-0.2199173419806729 4:1 10:1 15:1 22:1 28:1 33:1 35:1 37:1 48:1 50:1 53:1 59:1 67:1 74:1 78:1 81:1 84:1 88:1 98:1 104:1 109:1 
-1 3:1 7:1 17:1 22:1 28:1 33:1 34:1 37:1 41:1 50:1 53:1 59:1 67:1 76:1 78:1 81:1 84:1 90:1 92:1 104:1 106:1 
-1 4:1 7:1 11:1 22:1 28:1 33:1 35:1 37:1 48:1 50:1 53:1 57:1 67:1 74:1 78:1 81:1 84:1 88:1 98:1 104:1 109:1 
-1 4:1 7:1 15:1 22:1 28:1 33:1 35:1 37:1 48:1 50:1 53:1 57:1 67:1 74:1 78:1 81:1 84:1 88:1 98:1 104:1 109:1 
-1 3:1 7:1 17:1 22:1 28:1 33:1 34:1 37:1 45:1 50:1 53:1 59:1 67:1 76:1 78:1 81:1 84:1 90:1 92:1 104:1 106:1 
-0.865551444662747 3:1 8:1 16:1 21:1 28:1 33:1 34:1 36:1 48:1 50:1 53:1 57:1 62:1 76:1 78:1 81:1 83:1 88:1 98:1 101:1 112:1 
-1 6:1 7:1 11:1 22:1 28:1 33:1 35:1 37:1 48:1 50:1 53:1 57:1 67:1 74:1 78:1 81:1 84:1 88:1 98:1 104:1 109:1 
-1 3:1 7:1 15:1 22:1 28:1 33:1 35:1 37:1 48:1 50:1 55:1 57:1 67:1 74:1 78:1 81:1 84:1 88:1 98:1 104:1 109:1 
-0.1184358131656572 3:1 8:1 12:1 21:1 28:1 33:1 34:1 36:1 39:1 50:1 53:1 57:1 62:1 76:1 78:1 81:1 83:1 88:1 98:1 101:1 112:1 
-1 6:1 7:1 19:1 22:1 28:1 33:1 34:1 37:1 48:1 50:1 53:1 59:1 67:1 76:1 78:1 81:1 84:1 90:1 92:1 105:1 106:1 
-1 3:1 7:1 15:1 22:1 28:1 33:1 35:1 37:1 48:1 50:1 53:1 57:1 67:1 74:1 78:1 81:1 84:1 88:1 98:1 104:1 109:1 
-1 4:1 7:1 15:1 22:1 28:1 33:1 35:1 37:1 48:1 50:1 53:1 59:1 67:1 74:1 78:1 81:1 84:1 88:1 98:1 104:1 109:1 
-0.01609284696343393 3:1 7:1 12:1 21:1 28:1 33:1 34:1 36:1 48:1 50:1 53:1 57:1 67:1 71:1 78:1 81:1 83:1 88:1 98:1 101:1 112:1 
-1 6:1 7:1 15:1 22:1 28:1 33:1 35:1 37:1 48:1 50:1 53:1 57:1 67:1 74:1 78:1 81:1 84:1 88:1 98:1 104:1 109:1 
-1 4:1 10:1 15:1 22:1 28:1 33:1 35:1 37:1 48:1 50:1 55:1 57:1 67:1 74:1 78:1 81:1 84:1 88:1 98:1 104:1 109:1 
-0.7264116045538299 3:1 7:1 16:1 21:1 28:1 33:1 34:1 36:1 48:1 50:1 53:1 57:1 67:1 76:1 78:1 81:1 83:1 88:1 98:1 101:1 112:1 
-1 3:1 7:1 18:1 22:1 28:1 33:1 34:1 37:1 48:1 50:1 53:1 59:1 67:1 76:1 78:1 81:1 84:1 90:1 92:1 104:1 106:1 
-1 4:1 10:1 11:1 22:1 28:1 33:1 35:1 37:1 48:1 50:1 53:1 57:1 67:1 74:1 78:1 81:1 84:1 88:1 98:1 104:1 109:1 
-1 3:1 10:1 11:1 22:1 28:1 33:1 35:1 37:1 48:1 50:1 55:1 57:1 67:1 74:1 78:1 81:1 84:1 88:1 98:1 104:1 109:1 
-1 3:1 8:1 16:1 21:1 28:1 33:1 34:1 36:1 48:1 50:1 53:1 57:1 67:1 76:1 78:1 81:1 83:1 88:1 98:1 101:1 112:1 
-1 3:1 7:1 19:1 22:1 28:1 33:1 34:1 37:1 47:1 50:1 53:1 59:1 67:1 76:1 78:1 81:1 84:1 90:1 92:1 104:1 106:1 
-1 3:1 10:1 15:1 22:1 28:1 33:1 35:1 37:1 48:1 50:1 55:1 57:1 67:1 74:1 78:1 81:1 84:1 88:1 98:1 104:1 109:1 
-1 6:1 7:1 17:1 22:1 28:1 33:1 34:1 37:1 47:1 50:1 53:1 59:1 67:1 76:1 78:1 81:1 84:1 90:1 92:1 104:1 106:1 
-1 6:1 7:1 19:1 22:1 28:1 33:1 34:1 37:1 47:1 50:1 53:1 59:1 67:1 76:1 78:1 81:1 84:1 90:1 92:1 104:1 106:1 
-1 6:1 7:1 18:1 22:1 28:1 33:1 34:1 37:1 45:1 50:1 53:1 59:1 67:1 76:1 78:1 81:1 84:1 90:1 92:1 104:1 106:1 
-1 6:1 7:1 19:1 22:1 28:1 33:1 34:1 37:1 48:1 50:1 53:1 59:1 67:1 76:1 78:1 81:1 84:1 90:1 92:1 104:1 106:1 
-1 3:1 10:1 15:1 22:1 28:1 33:1 35:1 37:1 48:1 50:1 53:1 57:1 67:1 74:1 78:1 81:1 84:1 88:1 98:1 104:1 109:1 
-1 3:1 10:1 11:1 22:1 28:1 33:1 35:1 37:1 48:1 50:1 53:1 57:1 67:1 74:1 78:1 81:1 84:1 88:1 98:1 104:1 109:1 
-1 3:1 7:1 19:1 22:1 28:1 33:1 34:1 37:1 48:1 50:1 53:1 59:1 67:1 76:1 78:1 81:1 84:1 90:1 92:1 104:1 106:1 
-1 6:1 7:1 19:1 22:1 28:1 33:1 34:1 37:1 41:1 50:1 53:1 59:1 67:1 76:1 78:1 81:1 84:1 90:1 92:1 105:1 106:1 
-1 6:1 7:1 18:1 22:1 28:1 33:1 34:1 37:1 48:1 50:1 53:1 59:1 67:1 76:1 78:1 81:1 84:1 90:1 92:1 104:1 106:1 
-1 3:1 7:1 17:1 22:1 28:1 33:1 34:1 37:1 47:1 50:1 53:1 59:1 67:1 76:1 78:1 81:1 84:1 90:1 92:1 104:1 106:1 
-1 6:1 7:1 19:1 22:1 28:1 33:1 34:1 37:1 45:1 50:1 53:1 59:1 67:1 76:1 78:1 81:1 84:1 90:1 92:1 104:1 106:1 
-1 6:1 10:1 15:1 22:1 28:1 33:1 35:1 37:1 48:1 50:1 53:1 57:1 67:1 74:1 78:1 81:1 84:1 88:1 98:1 104:1 109:1 
-0.8346695907823187 3:1 7:1 12:1 21:1 28:1 33:1 34:1 36:1 39:1 50:1 53:1 57:1 67:1 76:1 78:1 81:1 83:1 88:1 98:1 101:1 112:1 
-1 3:1 7:1 19:1 22:1 28:1 33:1 34:1 37:1 45:1 50:1 53:1 59:1 67:1 76:1 78:1 81:1 84:1 90:1 92:1 105:1 106:1 
-1 6:1 7:1 15:1 22:1 28:1 33:1 35:1 37:1 48:1 50:1 55:1 57:1 67:1 74:1 78:1 81:1 84:1 88:1 98:1 104:1 109:1 
-0.2019440140652717 3:1 7:1 15:1 22:1 28:1 33:1 35:1 37:1 48:1 50:1 55:1 59:1 67:1 74:1 78:1 81:1 84:1 88:1 98:1 104:1 109:1 
-0.211144856700608 6:1 10:1 15:1 22:1 28:1 33:1 35:1 37:1 48:1 50:1 55:1 59:1 67:1 74:1 78:1 81:1 84:1 88:1 98:1 104:1 109:1 
-0.4659958490461085 3:1 7:1 19:1 22:1 28:1 33:1 34:1 37:1 48:1 50:1 53:1 59:1 67:1 76:1 78:1 81:1 84:1 90:1 92:1 105:1 106:1 
-1 6:1 7:1 19:1 22:1 28:1 33:1 34:1 37:1 45:1 50:1 53:1 59:1 67:1 76:1 78:1 81:1 84:1 90:1 92:1 105:1 106:1 
-1 4:1 8:1 19:1 22:1 28:1 33:1 35:1 36:1 40:1 50:1 54:1 57:1 67:1 76:1 78:1 81:1 83:1 86:1 98:1 103:1 107:1 
-1 2:1 8:1 19:1 22:1 28:1 33:1 35:1 36:1 45:1 50:1 54:1 58:1 67:1 76:1 78:1 81:1 83:1 86:1 98:1 103:1 107:1 
-0.1611703322532297 2:1 8:1 15:1 22:1 28:1 32:1 34:1 36:1 43:1 50:1 53:1 57:1 64:1 73:1 78:1 80:1 84:1 86:1 94:1 104:1 109:1 
-1 6:1 8:1 19:1 22:1 28:1 33:1 35:1 36:1 40:1 50:1 54:1 57:1 67:1 76:1 78:1 81:1 83:1 86:1 98:1 103:1 107:1 
-0.6449502090865308 2:1 8:1 15:1 22:1 28:1 32:1 34:1 36:1 43:1 50:1 53:1 57:1 64:1 73:1 78:1 82:1 84:1 86:1 99:1 104:1 109:1 
-0.01174239848212037 2:1 8:1 15:1 22:1 28:1 32:1 34:1 36:1 49:1 50:1 53:1 57:1 64:1 73:1 78:1 82:1 84:1 86:1 94:1 101:1 109:1 
-1 4:1 8:1 19:1 22:1 28:1 33:1 35:1 36:1 40:1 50:1 54:1 58:1 67:1 76:1 78:1 81:1 83:1 86:1 98:1 103:1 107:1 
-1 3:1 7:1 15:1 21:1 28:1 33:1 34:1 36:1 48:1 50:1 53:1 57:1 67:1 76:1 78:1 81:1 83:1 86:1 98:1 104:1 110:1 
-1 2:1 8:1 15:1 22:1 28:1 33:1 34:1 36:1 48:1 50:1 52:1 56:1 65:1 74:1 78:1 81:1 83:1 86:1 98:1 105:1 106:1 
-1 2:1 8:1 15:1 22:1 28:1 33:1 34:1 36:1 48:1 50:1 52:1 56:1 65:1 74:1 78:1 81:1 83:1 86:1 98:1 105:1 110:1 
-1 6:1 10:1 19:1 22:1 28:1 33:1 35:1 36:1 40:1 50:1 54:1 58:1 67:1 76:1 78:1 81:1 83:1 86:1 98:1 103:1 107:1 
-1 3:1 8:1 14:1 21:1 28:1 33:1 34:1 36:1 48:1 50:1 53:1 57:1 67:1 76:1 78:1 81:1 83:1 86:1 98:1 104:1 110:1 
-0.7294667525252171 4:1 8:1 14:1 22:1 28:1 33:1 35:1 36:1 40:1 50:1 54:1 58:1 67:1 76:1 78:1 81:1 83:1 86:1 98:1 103:1 107:1 
-0.4168996473402877 6:1 7:1 14:1 21:1 28:1 33:1 34:1 36:1 48:1 50:1 53:1 57:1 67:1 76:1 78:1 81:1 83:1 86:1 98:1 104:1 110:1 
-0.1636326660616366 2:1 8:1 15:1 22:1 28:1 32:1 34:1 36:1 43:1 50:1 53:1 57:1 64:1 73:1 78:1 80:1 84:1 86:1 91:1 104:1 109:1 
-1 2:1 10:1 14:1 22:1 28:1 33:1 35:1 36:1 40:1 50:1 54:1 57:1 67:1 76:1 78:1 81:1 83:1 86:1 98:1 103:1 107:1 
-0.4920325706642584 2:1 8:1 15:1 22:1 28:1 32:1 34:1 36:1 49:1 50:1 53:1 57:1 64:1 73:1 78:1 80:1 84:1 86:1 99:1 101:1 109:1 
-1 4:1 7:1 15:1 22:1 28:1 33:1 34:1 36:1 48:1 50:1 52:1 56:1 65:1 74:1 78:1 81:1 83:1 86:1 98:1 105:1 106:1 
-0.9312694319522467 2:1 10:1 19:1 22:1 28:1 33:1 35:1 36:1 45:1 50:1 54:1 57:1 67:1 76:1 78:1 81:1 83:1 86:1 98:1 103:1 107:1 
-1 2:1 8:1 14:1 22:1 28:1 33:1 35:1 36:1 40:1 50:1 54:1 58:1 67:1 76:1 78:1 81:1 83:1 86:1 98:1 103:1 107:1 
-0.5038959530681137 2:1 8:1 15:1 22:1 28:1 32:1 34:1 36:1 49:1 50:1 53:1 57:1 64:1 73:1 78:1 80:1 84:1 86:1 99:1 104:1 109:1 
-1 2:1 8:1 19:1 22:1 28:1 33:1 35:1 36:1 48:1 50:1 54:1 57:1 67:1 76:1 78:1 81:1 83:1 86:1 98:1 103:1 107:1 
-1 3:1 7:1 15:1 22:1 28:1 33:1 34:1 36:1 48:1 50:1 52:1 56:1 65:1 74:1 78:1 81:1 83:1 86:1 98:1 105:1 106:1 
-0.4047248655874813 6:1 10:1 19:1 22:1 28:1 33:1 35:1 36:1 40:1 50:1 54:1 57:1 67:1 76:1 78:1 81:1 83:1 86:1 98:1 103:1 107:1 
-1 6:1 7:1 16:1 21:1 28:1 33:1 34:1 36:1 48:1 50:1 53:1 57:1 67:1 76:1 78:1 81:1 83:1 86:1 98:1 104:1 110:1 
-1 2:1 8:1 19:1 22:1 28:1 33:1 35:1 36:1 48:1 50:1 54:1 58:1 67:1 76:1 78:1 81:1 83:1 86:1 98:1 103:1 107:1 
-1 2:1 8:1 14:1 22:1 28:1 33:1 35:1 36:1 45:1 50:1 54:1 58:1 67:1 76:1 78:1 81:1 83:1 86:1 98:1 103:1 107:1 
-1 6:1 8:1 14:1 21:1 28:1 33:1 34:1 36:1 48:1 50:1 53:1 57:1 67:1 76:1 78:1 81:1 83:1 86:1 98:1 104:1 110:1 
-1 3:1 8:1 15:1 21:1 28:1 33:1 34:1 36:1 48:1 50:1 53:1 57:1 67:1 76:1 78:1 81:1 83:1 86:1 98:1 104:1 110:1 
-0.3746077923599322 2:1 8:1 15:1 22:1 28:1 32:1 34:1 36:1 49:1 50:1 53:1 57:1 64:1 73:1 78:1 82:1 84:1 86:1 91:1 101:1 109:1 
-1 2:1 8:1 19:1 22:1 28:1 33:1 35:1 36:1 40:1 50:1 54:1 58:1 67:1 76:1 78:1 81:1 83:1 86:1 98:1 103:1 107:1 
-1 2:1 10:1 14:1 22:1 28:1 33:1 35:1 36:1 40:1 50:1 54:1 58:1 67:1 76:1 78:1 81:1 83:1 86:1 98:1 103:1 107:1 
-1 3:1 8:1 16:1 21:1 28:1 33:1 34:1 36:1 48:1 50:1 53:1 57:1 67:1 76:1 78:1 81:1 83:1 86:1 98:1 104:1 110:1 
-1 2:1 8:1 19:1 22:1 28:1 33:1 35:1 36:1 40:1 50:1 54:1 57:1 67:1 76:1 78:1 81:1 83:1 86:1 98:1 103:1 107:1 
-1 2:1 10:1 19:1 22:1 28:1 33:1 35:1 36:1 40:1 50:1 54:1 57:1 67:1 76:1 78:1 81:1 83:1 86:1 98:1 103:1 107:1 
-0.423344259596703 6:1 8:1 15:1 21:1 28:1 33:1 34:1 36:1 48:1 50:1 53:1 57:1 67:1 76:1 78:1 81:1 83:1 86:1 98:1 104:1 110:1 
-1 2:1 8:1 14:1 22:1 28:1 33:1 35:1 36:1 40:1 50:1 54:1 57:1 67:1 76:1 78:1 81:1 83:1 86:1 98:1 103:1 107:1 
-0.1083147816497244 6:1 8:1 19:1 22:1 28:1 33:1 35:1 36:1 45:1 50:1 54:1 58:1 67:1 76:1 78:1 81:1 83:1 86:1 98:1 103:1 107:1 
-0.8421157981002005 2:1 10:1 19:1 22:1 28:1 33:1 35:1 36:1 48:1 50:1 54:1 58:1 67:1 76:1 78:1 81:1 83:1 86:1 98:1 103:1 107:1 
-1 2:1 8:1 19:1 22:1 28:1 33:1 35:1 36:1 45:1 50:1 54:1 57:1 67:1 76:1 78:1 81:1 83:1 86:1 98:1 103:1 107:1 
-1 2:1 10:1 19:1 22:1 28:1 33:1 35:1 36:1 45:1 50:1 54:1 58:1 67:1 76:1 78:1 81:1 83:1 86:1 98:1 103:1 107:1 
-1 6:1 8:1 16:1 21:1 28:1 33:1 34:1 36:1 48:1 50:1 53:1 57:1 67:1 76:1 78:1 81:1 83:1 86:1 98:1 104:1 110:1 
-0.9882576015178797 2:1 8:1 15:1 22:1 28:1 32:1 34:1 36:1 49:1 50:1 53:1 57:1 64:1 73:1 78:1 82:1 84:1 86:1 94:1 104:1 109:1 
-1 2:1 7:1 15:1 22:1 28:1 33:1 34:1 36:1 48:1 50:1 52:1 56:1 65:1 74:1 78:1 81:1 83:1 86:1 98:1 105:1 106:1 
-1 2:1 8:1 14:1 22:1 28:1 33:1 35:1 36:1 48:1 50:1 54:1 58:1 67:1 76:1 78:1 81:1 83:1 86:1 98:1 103:1 107:1 
-1 6:1 8:1 19:1 22:1 28:1 33:1 35:1 36:1 40:1 50:1 54:1 58:1 67:1 76:1 78:1 81:1 83:1 86:1 98:1 103:1 107:1 
-0.9927780745406052 4:1 8:1 15:1 22:1 28:1 33:1 34:1 36:1 48:1 50:1 52:1 56:1 65:1 74:1 78:1 81:1 83:1 86:1 98:1 105:1 106:1 
-0.8172501502792199 2:1 8:1 15:1 22:1 28:1 32:1 34:1 36:1 49:1 50:1 53:1 57:1 64:1 73:1 78:1 80:1 84:1 86:1 94:1 104:1 109:1 
-0.6068151634029154 2:1 8:1 15:1 22:1 28:1 32:1 34:1 36:1 49:1 50:1 53:1 57:1 64:1 73:1 78:1 82:1 84:1 86:1 91:1 104:1 109:1 
-0.3429425806796728 2:1 8:1 15:1 22:1 28:1 32:1 34:1 36:1 49:1 50:1 53:1 57:1 64:1 73:1 78:1 82:1 84:1 86:1 99:1 104:1 109:1 
-1 6:1 8:1 14:1 22:1 28:1 33:1 35:1 36:1 40:1 50:1 54:1 58:1 67:1 76:1 78:1 81:1 83:1 86:1 98:1 103:1 107:1 
-1 6:1 8:1 14:1 22:1 28:1 33:1 35:1 36:1 40:1 50:1 54:1 57:1 67:1 76:1 78:1 81:1 83:1 86:1 98:1 103:1 107:1 
-0.8390974389827985 2:1 8:1 15:1 22:1 28:1 32:1 34:1 36:1 49:1 50:1 53:1 57:1 64:1 73:1 78:1 80:1 84:1 86:1 91:1 104:1 109:1 
-0.5878216189214968 6:1 7:1 15:1 22:1 28:1 33:1 34:1 36:1 48:1 50:1 52:1 56:1 65:1 74:1 78:1 81:1 83:1 86:1 98:1 105:1 106:1 
-1 3:1 7:1 14:1 21:1 28:1 33:1 34:1 36:1 48:1 50:1 53:1 57:1 67:1 76:1 78:1 81:1 83:1 86:1 98:1 104:1 110:1 
-1 3:1 7:1 16:1 21:1 28:1 33:1 34:1 36:1 48:1 50:1 53:1 57:1 67:1 76:1 78:1 81:1 83:1 86:1 98:1 104:1 110:1 
-1 2:1 10:1 19:1 22:1 28:1 33:1 35:1 36:1 40:1 50:1 54:1 58:1 67:1 76:1 78:1 81:1 83:1 86:1 98:1 103:1 107:1 
-1 3:1 8:1 15:1 22:1 28:1 33:1 34:1 36:1 48:1 50:1 52:1 56:1 65:1 74:1 78:1 81:1 83:1 86:1 98:1 105:1 106:1 
-1 2:1 7:1 15:1 22:1 28:1 33:1 34:1 36:1 48:1 50:1 52:1 56:1 65:1 74:1 78:1 81:1 83:1 86:1 98:1 105:1 110:1 
